digraph Tree {
node [shape=box, style="filled, rounded", color="black", fontname=helvetica] ;
edge [fontname=helvetica] ;
0 [label="petal width (cm) <= 0.75\ngini = 0.66\nsamples = 93\nvalue = [53, 53, 44]\nclass = setosa", fillcolor="#ffffff"] ;
1 [label="gini = 0.0\nsamples = 27\nvalue = [53, 0, 0]\nclass = setosa", fillcolor="#e58139"] ;
0 -> 1 [labeldistance=2.5, labelangle=45, headlabel="True"] ;
2 [label="petal width (cm) <= 1.7\ngini = 0.5\nsamples = 66\nvalue = [0, 53, 44]\nclass = versicolor", fillcolor="#ddfbea"] ;
0 -> 2 [labeldistance=2.5, labelangle=-45, headlabel="False"] ;
3 [label="petal length (cm) <= 5.35\ngini = 0.11\nsamples = 36\nvalue = [0, 50, 3]\nclass = versicolor", fillcolor="#45e789"] ;
2 -> 3 ;
4 [label="gini = 0.0\nsamples = 34\nvalue = [0, 50, 0]\nclass = versicolor", fillcolor="#39e581"] ;
3 -> 4 ;
5 [label="gini = 0.0\nsamples = 2\nvalue = [0, 0, 3]\nclass = virginica", fillcolor="#8139e5"] ;
3 -> 5 ;
6 [label="petal length (cm) <= 4.85\ngini = 0.13\nsamples = 30\nvalue = [0, 3, 41]\nclass = virginica", fillcolor="#8a47e7"] ;
2 -> 6 ;
7 [label="sepal length (cm) <= 5.95\ngini = 0.38\nsamples = 2\nvalue = [0, 3, 1]\nclass = versicolor", fillcolor="#7beeab"] ;
6 -> 7 ;
8 [label="gini = 0.0\nsamples = 1\nvalue = [0, 3, 0]\nclass = versicolor", fillcolor="#39e581"] ;
7 -> 8 ;
9 [label="gini = 0.0\nsamples = 1\nvalue = [0, 0, 1]\nclass = virginica", fillcolor="#8139e5"] ;
7 -> 9 ;
10 [label="gini = 0.0\nsamples = 28\nvalue = [0, 0, 40]\nclass = virginica", fillcolor="#8139e5"] ;
6 -> 10 ;
}